digraph Tree {
node [shape=box, style="filled, rounded", color="black", fontname=helvetica] ;
edge [fontname=helvetica] ;
0 [label="PAY_5 <= 1.0\ngini = 0.347\nsamples = 13238\nvalue = [16299, 4701]", fillcolor="#eca572"] ;
1 [label="PAY_AMT3 <= 2434.5\ngini = 0.305\nsamples = 11935\nvalue = [15374, 3559]", fillcolor="#eb9e67"] ;
0 -> 1 [labeldistance=2.5, labelangle=45, headlabel="True"] ;
2 [label="PAY_0 <= 1.5\ngini = 0.354\nsamples = 7112\nvalue = [8672, 2583]", fillcolor="#eda774"] ;
1 -> 2 ;
3 [label="PAY_AMT1 <= 1003.5\ngini = 0.309\nsamples = 6536\nvalue = [8366, 1978]", fillcolor="#eb9f68"] ;
2 -> 3 ;
4 [label="gini = 0.383\nsamples = 2242\nvalue = [2654, 923]", fillcolor="#eead7e"] ;
3 -> 4 ;
5 [label="gini = 0.263\nsamples = 4294\nvalue = [5712, 1055]", fillcolor="#ea985e"] ;
3 -> 5 ;
6 [label="PAY_AMT2 <= 37494.0\ngini = 0.446\nsamples = 576\nvalue = [306, 605]", fillcolor="#9dcff2"] ;
2 -> 6 ;
7 [label="gini = 0.443\nsamples = 573\nvalue = [300, 605]", fillcolor="#9bcef2"] ;
6 -> 7 ;
8 [label="gini = 0.0\nsamples = 3\nvalue = [6, 0]", fillcolor="#e58139"] ;
6 -> 8 ;
9 [label="LIMIT_BAL <= 155000.0\ngini = 0.222\nsamples = 4823\nvalue = [6702, 976]", fillcolor="#e99356"] ;
1 -> 9 ;
10 [label="PAY_AMT1 <= 392.5\ngini = 0.292\nsamples = 1708\nvalue = [2213, 478]", fillcolor="#eb9c64"] ;
9 -> 10 ;
11 [label="gini = 0.473\nsamples = 174\nvalue = [166, 103]", fillcolor="#f5cfb4"] ;
10 -> 11 ;
12 [label="gini = 0.262\nsamples = 1534\nvalue = [2047, 375]", fillcolor="#ea985d"] ;
10 -> 12 ;
13 [label="PAY_AMT1 <= 1.5\ngini = 0.18\nsamples = 3115\nvalue = [4489, 498]", fillcolor="#e88f4f"] ;
9 -> 13 ;
14 [label="gini = 0.38\nsamples = 170\nvalue = [201, 69]", fillcolor="#eeac7d"] ;
13 -> 14 ;
15 [label="gini = 0.165\nsamples = 2945\nvalue = [4288, 429]", fillcolor="#e88e4d"] ;
13 -> 15 ;
16 [label="PAY_0 <= 0.5\ngini = 0.494\nsamples = 1303\nvalue = [925, 1142]", fillcolor="#d9ecfa"] ;
0 -> 16 [labeldistance=2.5, labelangle=-45, headlabel="False"] ;
17 [label="LIMIT_BAL <= 95000.0\ngini = 0.431\nsamples = 454\nvalue = [492, 225]", fillcolor="#f1bb94"] ;
16 -> 17 ;
18 [label="MARRIAGE_2 <= 0.5\ngini = 0.472\nsamples = 271\nvalue = [266, 164]", fillcolor="#f5cfb3"] ;
17 -> 18 ;
19 [label="gini = 0.5\nsamples = 100\nvalue = [79, 75]", fillcolor="#fef9f5"] ;
18 -> 19 ;
20 [label="gini = 0.437\nsamples = 171\nvalue = [187, 89]", fillcolor="#f1bd97"] ;
18 -> 20 ;
21 [label="BILL_AMT4 <= 276760.0\ngini = 0.335\nsamples = 183\nvalue = [226, 61]", fillcolor="#eca36e"] ;
17 -> 21 ;
22 [label="gini = 0.31\nsamples = 178\nvalue = [223, 53]", fillcolor="#eb9f68"] ;
21 -> 22 ;
23 [label="gini = 0.397\nsamples = 5\nvalue = [3, 8]", fillcolor="#83c2ef"] ;
21 -> 23 ;
24 [label="BILL_AMT2 <= 181.5\ngini = 0.436\nsamples = 849\nvalue = [433, 917]", fillcolor="#96cbf1"] ;
16 -> 24 ;
25 [label="PAY_0 <= 1.5\ngini = 0.458\nsamples = 18\nvalue = [20, 11]", fillcolor="#f3c6a6"] ;
24 -> 25 ;
26 [label="gini = 0.266\nsamples = 12\nvalue = [16, 3]", fillcolor="#ea995e"] ;
25 -> 26 ;
27 [label="gini = 0.444\nsamples = 6\nvalue = [4, 8]", fillcolor="#9ccef2"] ;
25 -> 27 ;
28 [label="PAY_3 <= -0.5\ngini = 0.43\nsamples = 831\nvalue = [413, 906]", fillcolor="#93caf1"] ;
24 -> 28 ;
29 [label="gini = 0.397\nsamples = 7\nvalue = [8, 3]", fillcolor="#efb083"] ;
28 -> 29 ;
30 [label="gini = 0.428\nsamples = 824\nvalue = [405, 903]", fillcolor="#92c9f1"] ;
28 -> 30 ;
}